<bias> 0.15523832 -0.16799632 0.9283921 0.8685723 -1.1645278 1.0396707 -0.09737264 1.171978 3.2144532 -0.44693625 0.9918949 1.0891016 -0.2942625 0.6938031 -1.6343414 -1.6126567
<unk> -1.7289304 0.6780005 0.0195424 -0.7805113 -1.3484017 -0.005646215 0.04114076 0.14866614 0.23263235 -1.2778746 0.0099105565 1.0063348 0.58396304 -1.8127208 -0.16652247 0.6076095
<s> 0.15159576 0.41813764 -0.9453396 0.88510686 0.16062611 0.849186 0.12896629 0.24154128 -0.46494904 0.96144617 1.7921684 1.2190697 -0.6222701 -1.3185232 2.1748395 -1.9759241
</s> -0.34432063 0.43230075 0.38618818 -1.2232224 -2.6787467 0.1709534 1.3938698 -0.38733962 0.77399606 -2.326686 1.9889029 0.23782188 -1.024254 -1.2152314 -0.46427485 -1.1240884
the -0.09305835 -1.0306212 -0.48255992 0.57759196 -0.65186584 0.594007 0.90004176 0.3138553 -0.121642515 0.52649945 -0.08872502 1.6970754 -0.015389267 -0.33497125 -0.82308024 -2.0957716
of -1.5855006 0.9490353 0.733552 0.60190564 -1.467786 1.5093262 0.012778934 -1.6922677 0.031787433 -0.28509614 -1.7288353 0.32979202 -0.37414625 -1.166831 -0.4759008 -1.0888423
, 0.015048178 2.009986 0.1598014 -0.62832355 -1.0577192 -0.87670535 0.9762811 -0.6972578 1.6622314 0.45557773 1.5551387 0.5121753 -0.23141153 0.28800246 0.6103722 -1.2731655
it 1.6759958 0.15266518 0.49264607 0.058840267 -0.9706947 0.7810392 -1.078755 0.7814031 -0.1406228 -0.6872882 -0.061454214 0.30136397 1.3350255 0.57123405 2.1393404 0.094411984
game 0.68812263 -1.2124935 -1.6849475 -0.03774592 -1.4721702 -0.73043954 -0.8775417 0.6860542 -0.27611193 0.8520176 1.9321363 -1.8561921 0.5753079 -0.6544223 -0.67667216 1.6719791
in 0.20266517 1.0052494 1.7744478 -1.3552681 0.0017652088 1.4746273 -1.159143 -0.11551106 0.37277317 0.7491955 0.60495496 -0.41230786 0.7949618 -0.5389435 0.8738813 -0.26678735
. -0.7217832 -0.612698 0.31486067 -3.0630867 1.3028405 -0.05868705 0.28353038 -0.99719435 0.60438734 0.29204008 -0.8346975 -0.04813733 0.8873925 0.26833147 -0.85665655 0.93433356
and 2.7890995 -1.1849892 -0.08570246 -0.6309218 0.027435279 0.86322707 0.4365159 -0.013160558 0.57333773 0.57052964 -0.7377285 0.3831246 -0.038474 0.04721027 0.53192294 0.914302
is 0.31990886 1.1884545 -0.554824 -1.6358631 -0.874822 -0.7926915 -0.42453727 2.014329 -0.30872238 0.50421774 0.15312655 0.76764405 -1.9128742 1.9863335 -0.055516224 0.7996368
a 0.5464355 -0.5677177 0.004014444 0.28169787 1.6840224 1.2112824 0.04788484 1.1055061 -0.034581434 -0.9830948 -0.11970092 -0.12286659 0.8837441 -1.1786735 -0.04562625 -0.048066985
to -2.0238419 1.9760817 -0.8284021 1.1999885 -0.6553597 0.81389445 0.98407936 -0.8309893 1.7147808 0.16571088 -0.22905 0.82161593 0.087610595 -2.7284849 -0.76728284 -0.8991968
this -2.0536513 -0.6988761 -0.6255285 1.0852398 -0.75499374 0.1162374 -1.3604486 -0.44518438 1.8717685 -0.088118464 0.38844565 -0.32209745 -0.6484928 -0.06882494 -0.3506991 0.9297339
i -0.9675506 0.14453414 -0.915098 0.09931009 -2.6982558 3.1573794 0.8470913 -0.8636476 0.23527248 -0.762828 -0.40187207 -0.9186841 -0.7737992 -0.81371295 -0.030796539 0.9402089
are 1.2616711 -0.4290229 -0.09348385 -0.28698218 0.8052533 0.6810779 0.18026961 -0.31409696 0.111395575 0.6607274 -0.24635938 0.21367545 0.28509155 0.23190764 1.0121865 0.47956285
trying -0.35127953 -1.2779875 0.48468176 -0.78151554 0.12306019 -0.041745294 -0.4515097 1.3364234 1.8502121 0.16207473 -0.9048003 0.2454566 -0.07530835 -0.9660462 -0.15155658 -0.060267262
with 1.2386955 -0.40022954 1.1327072 1.9488156 0.08412051 -0.2564959 0.20662929 1.0238096 -0.44822004 0.23357593 1.6813111 1.3801026 -1.1115463 0.9384759 -0.40598816 0.6924346
you -0.42764273 0.10329191 1.6981881 1.4940766 -2.148728 0.58185935 0.46944574 -0.22068338 1.5235782 -2.7892962 -0.27831334 -0.363763 -0.8329327 -1.788146 -0.07624581 -0.11604974
way -0.82276714 0.27179557 0.43593246 -1.3249375 -0.25383237 0.004388969 -0.43550122 0.32317472 -2.1381118 -0.5293697 0.0049461955 0.44134206 0.491937 1.0002148 1.7458856 0.92388284
castle -0.70064247 -1.8173227 -0.59772 -1.3205673 0.7399318 0.9045281 0.04849504 -2.3451576 -2.111125 -0.25063905 1.2497362 -0.68261796 0.26289004 -0.8754725 -1.1053599 0.509241
on 1.8390102 -0.892255 -0.6107136 -1.0060804 0.26377985 -2.1258426 -0.083131865 -0.3065509 -0.8108769 -0.6386048 -1.8533145 1.0868623 -0.6851881 -0.20058367 -0.37229398 2.0938323
like -2.5877585 -0.99037784 -0.4544831 2.3530843 0.43366575 0.9814806 -0.2411354 0.19920705 1.8959112 0.33682975 -1.7780104 -0.049283072 -1.4289455 0.038491335 -0.47599715 -0.2626134
so -1.2341571 -0.8152918 -1.1639739 -0.013429881 -0.9171191 1.3465071 -1.566949 -2.1269476 0.89527625 -0.30737743 -0.6121431 0.51744527 -1.1626657 -0.07480823 -1.1927601 0.9733531
one 0.2870872 1.3963658 -2.1972926 -0.14152533 0.47453335 -2.5792067 1.6435846 0.8957219 0.16130725 1.3988839 -0.27558437 0.4434387 0.08818204 -0.6406929 -0.65758955 -2.0414796
